{"input": {"bias": [0.6899471344686086, 0.8705327988577436, 0.45025192289290733, 0.2681159659020608, -0.40302186900119147, 1.5527726286824288, -0.2876938660494753, -0.7001909956188426, 0.2180739062032846, -0.7125554685234079, 1.9843154229968545, -1.2588940784498157, 0.46656975935294537, -0.4644896339723264, 0.37757714255252106, -0.4351819976222701], "grad_higher": [[-0.3048089476689501, 0.8382491405527712, -0.16671030776793444, -0.20355291047214932, 0.08495789835371267, 0.4890879960832783, 0.0351319671584578, -1.1809137400728826, -0.5498419688671675, 0.343674590558982, 0.20679937384396, -2.2825601775729987, 0.780285541203956, 1.0658396932792256, -1.6128323409547618, -0.8635827970204312], [-0.15939600526320824, 1.2549262211436574, -1.3271259350464422, 0.7795749138981584, 0.25197908413605064, 0.7314480842561095, 1.222725882579831, -0.6832319073398259, -0.2527597043265218, -1.2810718674276926, 0.1685990183446173, -0.4885559800565981, 1.523559020436703, -0.6075966982547483, -1.021640890445601, -0.4752206388663558], [-0.5637331658944582, 0.5733108263788003, -0.22341385429699998, -0.6450651559194676, -0.31808926600885745, -1.167999737782881, 1.5690489536797179, 0.4167196589687002, 0.3763282646523301, 0.3397023881251944, 0.19477038579901368, -0.2577615532956772, -1.94548047306419, 0.3202281741874833, -0.038640123943537524, 0.359137754023454], [-0.9305525567540504, 1.454093683967187, -0.9489970110961384, -0.49320928224642224, 0.0479997267890448, -2.468929257292704, 0.24057117480730472, 1.5786839496135825, 0.8550183244417026, 0.3536212342504001, 0.4349629359460696, 0.7500270067080125, 0.7218502008169905, -0.5590907622053394, 0.7952415628617874, -0.6281433275390355], [-0.2531436674270961, -0.9117647869811573, -1.9809361708116369, 0.5942822320436929, 0.11856275405592712, 0.22472079755504115, -0.3789410782487163, 0.15135874947815936, 0.5695068009515362, 1.1681152092018858, -0.7551037031983838, 1.6668007404592367, 0.04279427404626971, 1.431095826465412, -0.48447526513790384, 0.4153426345361079], [-0.5501285340110205, -1.5776787594789712, -0.7404086432024272, 0.8294318090363568, 0.6465249419222843, -0.8120172409611208, 1.3747534952011728, 0.08784247112982853, 2.2361255271508353, -0.047208336222827434, 0.4504256502993162, 0.5592927477883459, 0.9494483199858655, 0.005607620988989579, -1.8421189924086079, -0.4802804527937009], [0.15373043389530325, 1.0828336698200445, -1.056125663631059, 0.15104640237919933, 0.7819128719778367, 0.7783994042566054, -0.08416276937305768, -1.1167064489937377, -1.2423729183723142, -0.7102887745331724, -0.5238947630448997, -1.348459159696618, -1.4915700902968145, 0.8293325608976305, 0.27803944237017614, -0.11610106865494167], [-0.7118583475846314, 0.6018194293410533, -1.5892071338227307, -0.24405747463726754, -0.49347906150757476, -1.3648639719177935, 0.19524375868287142, -1.0295634760266126, -0.08586506551890503, 0.7635831304875712, -0.21374046505995514, -0.4372843555613743, 0.9324772552862605, 1.018942421129921, -1.036467389235104, 0.3759275073261684], [-0.7730936424258659, -0.23147742465320656, -0.3770487097558542, 1.8209370477271696, 0.31729338508445726, 1.4588714686156268, 0.3040356930725657, 0.6191612186169829, -0.15236454229429763, -0.8725319893070383, 0.8103721430036528, 0.7022944500808485, -1.7568653368235843, 0.06613262282295604, -1.0594592815109036, -1.4345260498339152], [-1.5938274909173094, 0.41854446673479934, -0.2800135609717454, 0.44840712101145647, 1.044369286611787, -1.702311515768891, 1.31110833621048, -0.9764812212011319, -0.003776371256308138, 0.16344310163019518, 1.0435241641323942, 0.26894982093859304, -0.5689152883951513, 0.9216330865619553, -0.7730070760795934, 1.2715073065718145], [-0.04198524923289481, 0.1724367884944162, -1.215774333906546, -1.488822798034288, -0.6386936005248413, 1.23032085600549, 0.8435010001227808, -0.4536449978441991, 0.4802981785830702, -0.01195151141162042, 0.241823073987254, -0.08352610543931278, 0.5341494700937485, -0.05846212821301474, 1.187956889593522, 0.38331211073545335], [-1.5752593367296943, -0.6812418543179866, 0.23128069727800796, -1.0252064807830457, -0.9164566373547841, -1.0812153373209115, 0.5553526895285485, -2.300382633755674, 0.41412043575574997, -0.8246412320649438, -0.07669433814795115, -1.036498352568238, 0.2462505032711854, 0.293024521876112, -0.8498928697460111, 1.5992575028136662], [0.8017072222343372, -0.22059225152313403, -0.6892637592144036, 0.6666868551708881, -0.9874871038349826, 2.073080972607141, 0.7559526464669066, -0.4374762107148446, -0.2837792057488893, -0.8318240978763722, -0.8090015858023413, 0.7582011056353498, -1.1836572003183354, 1.2983377685354587, -0.42402210982845034, -0.5299587958195977], [-0.7960449510234962, -0.8444495630680134, 0.35088612767163374, 0.581424010400341, -0.2176480710983922, -0.319987546422693, 0.5901963521529032, -0.6844262646897774, 0.36876857864995166, 0.21339419025897985, -0.49233171290122385, -1.3957530398346802, 0.7206617355036219, -0.5021970968774988, -0.8127283821277952, 0.4967799557906664], [1.032710471237462, -1.831963749894778, -0.2184312860623851, -2.1302838059325597, 2.080097646745958, -0.2882507528934848, 1.3069445896059977, 1.6277818841382874, 1.2188794129406424, -0.32574004391777805, -0.8128648109260693, -0.4725692897379252, 0.5094791455658653, 0.9325965568583152, 0.02837840050281594, 0.4503472817207527], [-0.3175941233060708, 0.4548722583078692, -1.4295784259956867, 1.0798906500752086, 1.645434200044036, -0.3253155208078675, 0.6612444318770131, 0.3083602266948275, 0.9924821716878621, 0.9344463787983461, 0.378794672469034, -0.8868156417570008, 0.0864067958601364, -0.5637977515700019, 0.5320193525305059, -1.2247215658191284], [-0.5621537115729879, -1.7539769613179776, -0.4795676734258979, 1.9138251628642187, 1.1177497914564358, -0.978198022962631, -0.6400610549981702, 1.6423089277479106, 0.40040629139006934, -0.5296945209873091, -1.231406257539325, 0.6686546350915374, -0.8376243664263134, -0.9027663297739539, 1.2873588705865289, -0.11454858689531766], [-0.5895809719877996, 0.17831760237456168, -0.1985710899150808, -1.7317184881295513, -1.0917984001172418, -0.8790615316305008, 0.09241447408389607, -1.3161293136623429, -0.6386069290293527, -1.379748715647968, -0.330935042472564, -0.09696073945908158, 0.13383762822199727, 0.10986978280599856, -0.04612323362677957, -1.5345503555344413], [-0.35224876590718407, -0.28605512216768175, -0.7774565409682946, -0.6829182358401625, 1.1221929980422525, 0.42658108829239927, -0.9653289427303762, 0.3196700763409139, -0.5096784320948519, -0.29697733768834483, -1.6030972944383122, 1.2843774887073733, 0.01590601230334444, -0.4117074151098081, 0.23444081284419202, 0.7592609581234104], [1.138597964833145, -1.3340283422517825, -0.33850526553361626, -0.6384538276848829, 0.1790766467555753, 1.08953357547607, -0.41951091524948037, -0.5791524008261383, 0.6070273959754836, -0.28606123472135375, 0.48990261105440464, -0.2971692817704671, 0.19293141354843293, -0.2696682443746102, -0.9048668627459324, -0.9615489449500751], [-0.6522610292484354, 2.1326059162765727, 1.3596111984669854, -0.14990807670385742, 0.8828059805521532, -0.5746877378027898, -0.08377707844092504, -0.795557009742051, 0.17598750146918365, 0.544192320714886, 0.03583456568891783, -0.7815749650179249, 1.0089845358144847, -0.8821825022927521, -0.7136030478059555, -2.234992529201878], [-0.3341826138214803, 1.2595718471503206, -1.2149645937311762, -0.7264263113888114, 1.6630547422183668, 1.9175337738108653, -1.5825131149869172, 2.463030477863013, -0.4467541354547928, -0.3255518366314871, -0.5464401611100215, 0.8362975928271223, -1.9371528576787773, -1.1577574224134932, 0.5539978537101264, -2.2445383869418447], [0.7106611934651346, -1.6132665632687992, -0.6315129064634012, 0.3439744207198618, 0.5153273479527612, 0.3416716861068978, -0.4046280944438508, 1.8953535500188123, 0.031329901871579365, 0.2809149474890762, -0.5226638667777912, 0.3026362178897681, 0.47868582852828656, -1.0294284439328556, -1.5298835113261149, -1.036777743431664], [0.8905482604366199, 0.36787272374023755, 1.1567177256701695, 0.009139751784442268, -0.41321354006011135, -0.6297146687825201, 0.9294195467283273, 0.5488529975036309, -1.7919910726758734, -0.7446025673078737, 2.2305545718800848, -1.1649821726720362, -1.7654314285474866, -0.4125745141006129, -1.8305039333324256, 0.11887078791391244], [0.08319717830044929, -0.18776607074754886, -1.3334286179585781, -1.22469311467981, 0.16723924192442058, 0.4230355883348335, -0.995215228073344, -0.44282779840822384, -0.21294511772289562, -1.2040549948267023, -0.6740674334918801, -0.01656074166105732, -1.49405056843877, -1.8817305656335943, 0.7044466548954833, 0.5405399901294637], [1.2389551927163527, 0.893108400749931, -0.5294375204138365, -0.3288798183991354, -0.1895964654618577, -0.5795418290484646, 1.050090537173293, 0.6702265658365767, 0.6522378771922168, -1.2771612310579752, 0.1801271503664136, -1.0015042577078805, 0.702858399637437, 0.07676036383077794, -0.2683486350046689, 1.9559411968772444], [0.5549020053183678, -0.6060610236315516, -0.20877115382013559, -0.32364540532579494, -1.0639595877547576, -0.6964414676861226, 0.5267140807364166, 0.1258679043711117, -0.7520890904320674, 0.2713390109376976, -1.634078426928256, -0.1929963078731391, 0.29687946023114015, -0.35168143605082375, -2.645325635959434, 0.7350047462845252], [0.5798431558252168, 0.9401048435444946, -0.5624041283233524, -1.3908284957876242, -0.06646883652214387, 0.41393949135657643, -0.4119122143185621, 0.24819601034479444, 0.8604564841578657, -0.6753087650424004, -0.19250727051498923, -1.1897667579006213, -0.004879531229607397, -1.222987315737501, -1.2563965521513873, 0.28051449124801403], [0.47834258734715734, 1.7551145980657825, -1.505430335189905, -0.25755558465849204, -1.2989337603621625, -0.2921032539822904, 0.3954136767125315, -1.66772498703094, 0.43019086621997216, 1.4174558490454017, -0.7222617215766755, 1.382458431977247, -0.9099457579044025, 1.0728780286311197, 0.5250693045052907, -0.8071908365569979], [-0.6029903266581099, 0.21354838277506077, 0.8640132848791494, -0.7407015064917617, -0.7123998445329731, -0.6982272152299842, -0.8907661194912153, 0.4903123493372617, 0.22182160547968696, -1.1473504121949842, 1.4530543803459872, 0.19314509418783382, -0.17783950786724834, -2.088796174216339, -0.9768200414921279, -0.04090020049527781], [-0.3575173218998213, -1.791601541095582, 0.6970537073971856, -0.34629278249967554, 0.25626912214441444, -0.7684418869159456, 0.5973236902545492, 0.2694025332666241, 0.22225128444775438, -0.6777372036057299, -0.12732840191642686, -0.2246915385468231, 1.3811880951719124, 0.2882570756309175, -0.7812444844915298, 2.306696190936871], [-1.3673461094578403, -0.4852702249615259, 0.44879743743824085, -1.3348671456334817, 0.7244388431874433, 0.21869682678859745, 0.5980640058162413, 0.19462103402302386, 1.3375315514416728, 0.5833354758011827, -2.7659837259485673, -0.052062689881532564, 1.159057130886072, -0.3266486526961595, -1.1355438051314626, -0.519193879726149], [-1.0029432788053192, 0.8058485887253692, -0.4285944055425829, 0.33576213442576897, 0.46115430585234823, 0.7897732610889001, -0.7173975377026014, 0.42146249577801714, -0.67659208334312, 0.6172014732290876, 0.11943664750590441, 2.055339919461498, -0.08467485392557023, -0.9263992647705764, 1.2588789784709178, 0.8899801182211281], [0.3793650116924053, -0.4237284576771798, 0.15325492068906443, -1.0386128397611436, 1.9803803708184946, -0.796648436228846, 2.263342353857657, -0.6831780119100078, 0.7136317609881604, 0.28323891241083266, 0.23350928630460774, 0.6993260928234555, -0.9988676980930179, 0.2752273019686078, -1.3369463461398587, 0.49182433739068226], [1.5456268900144219, 0.6735163645548401, -1.5805899647225123, -0.2265779923171306, 0.832152618009109, -0.9866375873361334, -0.5022033873796056, -0.5378986819934711, 0.40191492721066474, -1.9886406173667999, 0.140046578231787, -0.6856190869826827, 0.015802957640928383, -0.6868837925773917, 1.0120466834098085, -0.3392043386570284], [-0.9694789292614675, -1.5899127031418836, 1.9110267440324915, 0.1417394478747846, 0.23949211544395319, -0.5509241053303826, 0.2868032358119497, -0.4355005879924089, -0.9953302599718924, 0.478849233349579, 0.10534807621810824, 0.743968129564388, -1.013821994649849, 0.012622073218438595, 0.4872902529030276, -0.24255853929154444], [0.21197851631696227, 0.5466442655588369, 0.023183222699929697, 1.102843035418989, 1.2245916250422575, -0.10348607526225179, -0.43295097491945816, -1.0715676687261897, 0.6552592177447993, 2.4591811707579723, 1.4034261595276596, 0.54586214402453, -0.5692636331852415, -1.607217000755687, 0.4497887720662209, 0.7069763105158038], [-0.4539930393419454, -0.04069492998822447, 0.8274977682211299, -1.248721296357469, 0.25947307018700144, 0.39145791384953604, -0.7775204310134087, -0.6388922490577963, -1.356069200895629, -0.9740463188051873, -2.1893254705655227, 0.8873390650573618, -1.1469413278700755, 0.6387070073938609, 0.16250201110433177, -1.6896274381836212], [0.03152676571072052, 1.764225045513437, 1.0529125973598588, -0.549854975103749, 0.5400448181218317, -0.9078240825069264, 0.08860819966820833, -0.2679978627055735, 0.3828061462951622, 0.42240100317612683, -0.011036371697286872, -1.1146198630004824, -0.4148030935130952, 1.1549094325294504, -1.9217572967397187, -0.6808388685795063], [-1.9712163602005612, 1.6240021849119601, -0.6307175534952625, 1.736266615489058, 0.6722853681412159, 0.7570469736539389, 1.476563437974267, -0.9363206891216139, 1.023206152090077, 1.1393038559335609, -1.0383139857793653, -0.786419084261664, 0.6412766233022388, 0.11210136749924536, 2.2705553239483547, 0.3772088179868575], [-0.6943726948186058, -0.0779225783222762, -2.849163291857569, -1.6435419422658448, -0.2335124122142163, 2.6600584031254297, 0.18729525761429805, -0.2111362105423064, -0.46920754382125035, 1.3497135540058174, -0.6228735392196522, -0.6677427138097614, 0.2048929036882436, -1.5794072809347266, 0.7367199151214777, -0.8022193724676515]], "weight": [[1.0552354984129302, 0.7830546618966681, 0.7576721165955906, -1.7175868673011068, -0.2703545205834632, -0.9994293982549012, -1.159390263967594, 0.08442950019943966, 0.03345708723403657, -1.077984699367959, 0.9313904888022426], [-1.389448306521628, -1.2855941726681939, 0.9744628455065328, -0.27035046887410297, -1.218478336927704, 0.3612058630026055, 0.06378244809804129, 0.6673014288961504, 0.020305147367418296, -0.7695421799555563, 1.2892761962932715], [0.14172672277650572, -0.5898816522188286, 0.6403882615027614, -0.364325954817753, 0.03681563333540646, -0.14721813558225433, -0.6208058436068469, -1.4225820169087946, 1.6177076701681117, -1.266536216822201, 0.42255041670871446], [-1.9571827373747512, -0.27088793731778066, -0.5855335294292331, -0.1386056116964514, -1.1365204702023186, 1.205198528979611, -0.5446052499425744, 0.248036098696766, -0.21150435098613055, 0.2751253134096403, 0.516428474357865], [0.27324347094844975, 0.999513214020879, -0.09031421131448925, -0.4987381713307993, 0.6043825463511868, -0.668650710167727, 1.9061963219249778, -0.10271576822736869, -0.5761722282994266, -0.17225401463484674, -0.9025098777603893], [0.6252924143998331, -1.2585364963976333, -0.6686982982892261, -1.2149401553013421, -0.7131592388779998, -0.602213408566887, -0.6757178484927858, -0.2732605470877815, -1.498133765539817, 0.30453617343272416, 1.5204642744144217], [0.9374885782774898, 1.1589475061940295, 0.5221939769395958, -0.546191779560914, 0.35894143277293894, -0.7814587449442123, -0.32475402131016234, 0.5462813882027938, -0.5734172732772744, -0.44010175776305405, -1.069617450756062], [0.2820339382271787, 0.028037306700882562, -1.344775149439227, -0.603679777065071, -0.948423018418798, -1.288018451821821, -0.10934241776791817, -0.5967026659901641, 1.028658969244409, 1.6253719326290712, -0.6217175151934962], [0.09536999122194802, -1.2080067647826038, 0.04171346812950264, -0.5444161290236716, -1.0557034870548891, 1.2825754302006138, -0.13090508320304073, 1.0152760275063815, 0.6792478510322078, 0.10054865149500125, 0.26806333913473973], [-0.2650595046120434, 1.1715755081918755, 0.41660360665713947, 0.6385546100840359, 0.6652922666513211, -2.0063448355709186, 1.0815598626579495, -1.0943086928692733, 0.5598606969126999, -0.5305938526314415, 1.3906459135660323], [1.3037494340184743, -0.3114787744994713, -0.7467882425583457, 1.6417043244131926, 0.2770707958816391, 0.8818341394997206, 0.24503120724833283, -0.5732593959919667, -0.8152232048359003, -0.14694046601592153, -0.9937110338103078], [-0.7375655226153317, 1.056954707724729, 0.7336665527795112, -1.3353440151314522, -0.16345661322612198, -0.3501519806238456, 0.8001946810880074, 0.11339207925804991, -0.6024453866913344, -0.7928454524756978, 0.5893751492776725], [-0.595918851582224, -0.9280994274088039, 1.9589428166254126, 0.9706829162134768, 1.3176762274364366, -1.1522924650671753, 0.03362293679446244, 1.2018490518779537, -1.5702432278309164, -0.4226261211005372, 0.2456025477870086], [-1.130351253901707, -1.459324101164539, -0.3185584424607401, -0.28292217282101845, -1.5541262199282881, -0.5050793318872981, 0.803896755325443, 1.2768490706222428, 0.20787504535702708, -1.258519729629188, 1.0290189833905476], [0.5232636707896829, -1.4005069809510964, -0.025073138767541466, -0.9355121845386675, -0.5084056454955841, -0.25937924419515784, -0.046981156699733684, -0.1891566103765, -1.139937547853939, -1.2943661632895818, 0.5701297025800859], [-1.4561151350210302, 0.7361052509839597, -0.7531611176100127, 0.5766942454683296, 0.09423905316923926, 0.42771156549798445, 0.8577810046933857, 0.5821241432902685, 1.113915296068901, 0.3315013713735503, 1.8395968633804658]], "x": [[0.9202042020479467, 1.4675675974568105, 0.1887734725989993, 1.0555892431345935, 2.712210087898455, 1.2208251102606271, -0.7088704176566587, 1.5925516452920607, 0.7909012736165488, 0.2923014059261495, -0.47216896368496275], [-0.38467697917790167, 1.029582507663217, -0.09628862285836222, -0.05793148047365159, -1.560906561973415, 0.8124040295863204, -0.17292819003491824, 1.1334163106760844, 0.48856815990681685, -0.08514016835042718, -0.6091955061166928], [0.2504353425581223, 0.3262690828067572, -0.1215411831736442, -1.0515096432476974, -0.1937911111127831, 0.1817093094642832, 0.010173985948593601, 0.10141347064324498, -0.34114044464234766, 1.37185375898014, -0.36756798057589984], [-0.6887107125381579, 0.2413116553649583, 0.6995594362723468, 1.7551548985722325, 1.5955370445948978, 0.42379395416963034, 0.5827712348844047, 0.4323598174984021, -0.7961636440680064, 0.34437937342404745, 0.7582931744856186], [1.740728966252168, 0.7695309282403389, -1.2359435262977605, -2.7704771663460868, 0.5640085190912467, 0.9762243501537502, -0.25490799783758733, 0.9506377967390266, -1.884220307186033, 1.6926370096670937, 0.5634163867998493], [-2.417440003827344, -0.9362998964163952, 1.2549038939862627, -1.736578897982063, 0.7237384025787328, 1.8633298819680333, -0.619299541430298, 0.6061956903253314, 0.1885240764803688, 1.462224164708911, 1.8412661781330328], [1.245208311020884, 0.5735001541221968, 0.011491529200717103, -0.7647896468492061, 0.1773337195952264, -0.15753393804638371, -0.06369350011149462, 1.3208183442143546, -0.2778132497557631, 0.7768551868809073, -2.633969751211872], [-0.22014424235500998, -0.30500650572507026, 0.2484398324280828, 0.3509260698759991, -0.5857844723034507, -0.4202362287667433, 1.00987289495434, 0.8963074759338737, 0.020637459129156103, -0.6358706596208571, 1.71235538271942], [-1.5316837114595254, 0.5918185030003005, 0.1594056753295868, -0.8173185053474472, 0.244357735638614, 1.0815756322024184, 0.25109499863637147, 0.7574870381768302, -0.7579417585627584, 1.4924316385013556, 0.23167708803951662], [-0.09669523510212687, -1.9106990113298707, -1.9928345525350621, -0.11603862887301183, -0.5360672362368801, 0.883980672826691, -0.021497488797984177, 1.242537348346508, -0.7285347343692941, -0.8885568573591556, 0.07374006796761591], [0.22394278150159536, 1.3531434793505739, 0.4375887897458951, 1.5318040735005485, 0.511968130460336, -1.7525203705572046, -0.0656783072857137, 2.2017536063996976, 0.7857590879768559, 0.027902356334076055, 0.4965423423897363], [0.848257535665459, 0.8960129154843848, -0.028092648033224626, -0.3805322221778142, 0.631088558976528, 0.5711137929272946, -1.1351745028652183, -0.8633221980197918, -0.8653659110160242, -0.6039005389984325, 2.1075890864316165], [1.5778567342248266, 0.5489596764326086, -0.29093005728064136, 0.08969919764304506, 0.406062634371779, -0.781636312047258, -0.12788227377287462, 0.7122863356395586, -0.5660685836167276, 0.6750108797930955, -0.3884114241315265], [-2.149752010037818, 0.6428310702056483, 0.017522296673542694, 0.8138050307412984, -0.11856053773035609, 1.3460661391879853, 0.5192366018078775, -0.5591627803710404, 0.5332494995360301, 1.622702655571829, -1.3494529799437294], [-0.3828120347345053, -0.7629982618628831, -0.9929496739882816, 0.9311243312147621, 0.9516296369488775, -0.570798079555293, 0.7166968804034379, -0.3815730161746934, -0.1126524448405725, 0.2101498342790964, -0.3595868835812029], [2.633872942754294, 0.6263269451796796, 1.1827391102132447, -1.7078388553721977, 0.33525526762183816, -2.545417962847314, 1.4893608448521884, -1.7382235957615737, 0.8096360632414531, -0.4008690501681838, 0.4345658842356232], [0.9252503691290689, 0.7867735494495237, 0.025954530204831235, 0.2454555699343635, 2.277322504311346, -0.2656351161127498, -1.534368393669827, 2.0418782588206303, -0.06645091983074108, -0.6700779972877849, 0.1939711612349762], [0.3042061312477616, 0.45880045861396834, -0.5810554968972897, -0.9996728585576091, 1.3435134400529196, -0.2593386798673, 1.3537732548394392, 1.5104316695898845, 2.0420242470743672, -1.9151270016141795, -0.15871415386570775], [-0.7350959435534941, -0.6550326404296265, 0.4489843707816204, 0.7439666894748058, -0.7480341339336948, -0.7643358532355903, 0.29815955239731584, -0.15519553240704517, -0.11469228617854853, -0.0942582748465244, -1.249594728666123], [-0.96830582657083, -0.8754509083023471, -1.1689233450553234, -0.4334504954573122, 0.4338508905553066, -0.7056466848950269, 0.5042751449659483, -0.19618179875655767, 1.114309446757331, -0.16942778235832073, 1.8602342514603454], [-0.45044647889260947, 0.43087273970638434, 1.1757467822771333, 0.5581691141552422, -1.2457776289861404, -0.8935448922827569, -0.6126359794073735, -1.2899688917040013, 0.16601355021559153, -1.4226545258709367, -0.119959948134481], [-0.06762692929373564, 0.40470844361894787, -0.4347014629872062, -0.601698927163624, 0.4641537859737705, -0.7495090462843627, -1.0002897878888222, 1.0031009890392588, -2.248241387319112, -0.052638918000346896, 0.5959299360555875], [0.8038993950377945, -0.2048711324224652, 1.8347126663823152, 0.7574152462257966, -0.9395007467643376, 1.8153636606457177, 0.6172997589439312, 0.8037534788379014, -1.042783851402947, 0.9523325277260961, 0.6564744445725779], [0.4067250599156676, -0.7469635289079073, -0.8864485424245703, 0.40493150133627104, 0.7888668319717159, -0.36039131651905226, -1.2283381239613693, -0.7544132740404593, -1.2775486249668755, 1.0745219300325428, 0.8038534683691079], [0.20830144477141332, 0.06594737960087062, 0.12683458090068764, -0.1160018994996266, -0.2965204152064416, -0.7884901567757908, -0.13901151908960013, 1.870823591654036, 0.2570638012946016, 0.2163376904195705, 1.0314232915970885], [-0.40870248423686795, 0.1707806387856254, 0.4654069370670533, -0.20156458252675227, 1.730428921656382, -0.9645845470943561, -1.3709993966463307, 0.9993532998864451, 0.06045592122065385, -1.0243232102253852, 1.1726614482485378], [1.265945546374859, -1.5023933794308668, 0.04252934093171425, 0.8885875300931122, 0.07017371926543935, 0.1553077734972345, -0.5615221858565554, 0.08823154067401062, -0.5434735725341132, 0.23532530307427138, -0.7557478630072375], [-0.503378837731229, 0.1411602300825622, 1.3682895127011514, 0.649703978695264, 0.9565934641120118, -0.8994635123176609, -0.027327442154901148, 0.5745957508011853, 0.8795845400931962, 0.4177611830216001, 0.7339916756521215], [0.23302116291969677, -0.9799025595335724, 1.2533362193044906, -1.2997903685731744, -0.20706359933873963, 0.3046934876070512, -2.2052369748863723, 0.3268337080934316, 1.144688843136276, -1.8009133586156374, -0.669068193378029], [-0.5464185277290223, 0.9763104007188097, 2.016608641152895, 2.2341037088569493, -1.0914562979082214, 0.2575878351204651, -0.9583514079676755, -1.2864207039626971, -1.2947080676500045, -1.8402113948637047, -0.2999419183521365], [-0.46290246713212657, 0.30277103223296953, 1.5757306815364054, -0.08313428612925419, 0.3656501978349793, 0.6181360410466606, -0.6140528796309013, 0.3311252694921964, 0.17048362654905663, 0.846425146646073, 0.8312585457970446], [-1.9176560451392661, -0.41193863430817124, 1.7260089590936085, 0.22803356351396795, -0.08585629709360809, 0.24100925958436833, 0.30599583517651774, -1.533604340856979, 0.4324212066303895, 0.4857596978404902, 1.4194704877307533], [0.5459736625920496, -1.443206273527666, -0.5829082800715288, 0.5095212053179589, 0.3948657918662462, -1.269496692116097, 0.6840825616635412, 0.3443725741693877, -0.21656195582935026, -0.37951708609330226, 0.5184607968548425], [-0.0032363092676394073, -2.071650578770758, -0.6740779098142438, -0.4501605172184674, -0.7250208434313445, 0.09598431067489016, 0.5493673767836388, -0.2987025394025429, 1.176433274960942, 0.985874553577451, -0.15930671353309403], [-0.4726786896625436, -0.5276449924319119, -1.4187770151640022, 2.160353192790908, 0.7570181498721685, 1.0944792318395309, 1.2391343287475676, 0.6700109913842882, -1.3109062551018251, -1.0737107253333904, 0.07265965068328534], [-0.716478361346781, 1.2847806263886625, 0.26012630881601195, -0.007069343780392698, 0.44949494824262987, -1.2535429200395969, -0.6034404308007003, 1.1726479487266654, -0.7110531387673842, 1.08371122669803, -1.5928419291849694], [2.6963319282734868, 0.9920807522401002, 1.491695508461379, -0.9782678515058528, 0.5669682858224385, 0.4100590255684856, -0.935600421818737, -0.38672997295087014, 0.6105698827065016, -0.2472065632895929, 0.1310830219488682], [0.439146301386515, 1.9998897555736426, -0.22537357809739095, -1.5509676274564024, 0.20342865647819752, 2.3303522386305118, 0.42109413118168565, 0.7716820900442487, 1.556413467404615, -0.11188395988571626, -1.0097487394473978], [-0.2859448768128502, -1.8887986142958983, 0.7850541851369635, 0.7152820921140008, -0.3378344515127089, -1.6302697531584116, -0.6732638015729195, -1.5675892664150486, 0.1279212879753282, -1.1481121348366645, 1.032526148780418], [0.01277492140584887, 1.3930610316660779, -1.4591255749631267, 2.606760335252613, -0.19339330038759664, -1.33334463155219, -1.1999684446236343, -1.6525240950759055, 1.9074616581787829, -0.8123380336539412, -1.0421718522235264], [1.0514491643212642, 0.8442885365697844, 0.21362865839737716, -1.9286480002152884, -0.2788586483968585, -0.4762232107855319, -1.5549965217597292, 0.5709066847995481, -0.6105422168812995, 0.6356179731068494, 1.176535681892234]]}, "verify": {"batch_size": 41, "in_features": 11, "out_features": 16, "test_type": "linear"}}